digraph Tree {
node [shape=box, style="filled, rounded", color="black", fontname="helvetica"] ;
edge [fontname="helvetica"] ;
0 [label=<art_UN &le; 0.5<br/>gini = 0.932<br/>samples = 1159<br/>value = [95.0, 77.0, 80.0, 78.0, 79.0, 80.0, 79.0, 79.0, 78.0<br/>77.0, 79.0, 78.0, 79.0, 79.0, 42.0]<br/>class = r_depict>, fillcolor="#fffdfc"] ;
1 [label=<simB &le; 0.14<br/>gini = 0.931<br/>samples = 1102<br/>value = [40, 77, 80, 78, 79, 80, 79, 79, 77, 77, 79, 78<br/>79, 78, 42]<br/>class = r_has_property-1>, fillcolor="#ffffff"] ;
0 -> 1 [labeldistance=2.5, labelangle=45, headlabel="True"] ;
2 [label=<simA &le; 0.003<br/>gini = 0.917<br/>samples = 810<br/>value = [39.0, 72.0, 79.0, 76.0, 56.0, 69.0, 71.0, 7.0, 4.0<br/>72.0, 76.0, 5.0, 75.0, 68.0, 41.0]<br/>class = r_has_property-1>, fillcolor="#fffffe"] ;
1 -> 2 ;
3 [label=<simB &le; -0.001<br/>gini = 0.812<br/>samples = 249<br/>value = [7.0, 72.0, 9.0, 63.0, 13.0, 9.0, 18.0, 0.0, 1.0, 0.0<br/>6.0, 2.0, 41.0, 0.0, 8.0]<br/>class = r_has_causatif>, fillcolor="#fefcf5"] ;
2 -> 3 ;
4 [label=<simB &le; -0.033<br/>gini = 0.487<br/>samples = 43<br/>value = [0, 0, 2, 29, 0, 0, 0, 0, 0, 0, 2, 0, 10, 0<br/>0]<br/>class = r_holo>, fillcolor="#b3f08d"] ;
3 -> 4 ;
5 [label="(...)", fillcolor="#C0C0C0"] ;
4 -> 5 ;
22 [label="(...)", fillcolor="#C0C0C0"] ;
4 -> 22 ;
33 [label=<simB &le; 0.001<br/>gini = 0.81<br/>samples = 206<br/>value = [7.0, 72.0, 7.0, 34.0, 13.0, 9.0, 18.0, 0.0, 1.0, 0.0<br/>4.0, 2.0, 31.0, 0.0, 8.0]<br/>class = r_has_causatif>, fillcolor="#f9f2d3"] ;
3 -> 33 ;
34 [label="(...)", fillcolor="#C0C0C0"] ;
33 -> 34 ;
51 [label="(...)", fillcolor="#C0C0C0"] ;
33 -> 51 ;
148 [label=<simA &le; 0.089<br/>gini = 0.9<br/>samples = 561<br/>value = [32.0, 0.0, 70.0, 13.0, 43.0, 60.0, 53.0, 7.0, 3.0<br/>72.0, 70.0, 3.0, 34.0, 68.0, 33.0]<br/>class = r_processus_instru>, fillcolor="#fefeff"] ;
2 -> 148 ;
149 [label=<art_LA &le; 0.5<br/>gini = 0.865<br/>samples = 246<br/>value = [20, 0, 3, 8, 33, 7, 27, 7, 2, 20, 64, 2, 21<br/>3, 29]<br/>class = r_processus_patient>, fillcolor="#ede2fb"] ;
148 -> 149 ;
150 [label="(...)", fillcolor="#C0C0C0"] ;
149 -> 150 ;
337 [label="(...)", fillcolor="#C0C0C0"] ;
149 -> 337 ;
344 [label=<simA &le; 0.203<br/>gini = 0.845<br/>samples = 315<br/>value = [12.0, 0.0, 67.0, 5.0, 10.0, 53.0, 26.0, 0.0, 1.0<br/>52.0, 6.0, 1.0, 13.0, 65.0, 4.0]<br/>class = r_has_property-1>, fillcolor="#fefffd"] ;
148 -> 344 ;
345 [label="(...)", fillcolor="#C0C0C0"] ;
344 -> 345 ;
528 [label="(...)", fillcolor="#C0C0C0"] ;
344 -> 528 ;
587 [label=<simB &le; 0.29<br/>gini = 0.804<br/>samples = 292<br/>value = [1, 5, 1, 2, 23, 11, 8, 72, 73, 5, 3, 73, 4<br/>10, 1]<br/>class = r_processus_agent>, fillcolor="#ffffff"] ;
1 -> 587 ;
588 [label=<prep_DU &le; 0.5<br/>gini = 0.714<br/>samples = 117<br/>value = [1, 2, 0, 1, 14, 10, 0, 58, 5, 4, 0, 13, 3, 6<br/>0]<br/>class = r_own>, fillcolor="#aae4f4"] ;
587 -> 588 ;
589 [label=<is_det &le; 0.5<br/>gini = 0.837<br/>samples = 50<br/>value = [1.0, 2.0, 0.0, 0.0, 14.0, 8.0, 0.0, 7.0, 1.0, 4.0<br/>0.0, 8.0, 3.0, 2.0, 0.0]<br/>class = r_lieu>, fillcolor="#e3fbe3"] ;
588 -> 589 ;
590 [label="(...)", fillcolor="#C0C0C0"] ;
589 -> 590 ;
615 [label="(...)", fillcolor="#C0C0C0"] ;
589 -> 615 ;
634 [label=<simA &le; 0.122<br/>gini = 0.407<br/>samples = 67<br/>value = [0, 0, 0, 1, 0, 2, 0, 51, 4, 0, 0, 5, 0, 4<br/>0]<br/>class = r_own>, fillcolor="#6cd0ec"] ;
588 -> 634 ;
635 [label="(...)", fillcolor="#C0C0C0"] ;
634 -> 635 ;
668 [label="(...)", fillcolor="#C0C0C0"] ;
634 -> 668 ;
673 [label=<simA &le; 0.015<br/>gini = 0.719<br/>samples = 175<br/>value = [0, 3, 1, 1, 9, 1, 8, 14, 68, 1, 3, 60, 1, 4<br/>1]<br/>class = r_processus_agent>, fillcolor="#f1f6fd"] ;
587 -> 673 ;
674 [label=<simB &le; 0.815<br/>gini = 0.584<br/>samples = 60<br/>value = [0, 3, 0, 0, 3, 0, 3, 6, 8, 0, 0, 37, 0, 0<br/>0]<br/>class = r_product_of>, fillcolor="#df91f0"] ;
673 -> 674 ;
675 [label="(...)", fillcolor="#C0C0C0"] ;
674 -> 675 ;
718 [label="(...)", fillcolor="#C0C0C0"] ;
674 -> 718 ;
721 [label=<simA &le; 0.121<br/>gini = 0.676<br/>samples = 115<br/>value = [0, 0, 1, 1, 6, 1, 5, 8, 60, 1, 3, 23, 1, 4<br/>1]<br/>class = r_processus_agent>, fillcolor="#afcaf5"] ;
673 -> 721 ;
722 [label="(...)", fillcolor="#C0C0C0"] ;
721 -> 722 ;
773 [label="(...)", fillcolor="#C0C0C0"] ;
721 -> 773 ;
792 [label=<simB &le; 0.264<br/>gini = 0.068<br/>samples = 57<br/>value = [55, 0, 0, 0, 0, 0, 0, 0, 1, 0, 0, 0, 0, 1<br/>0]<br/>class = r_depict>, fillcolor="#e68540"] ;
0 -> 792 [labeldistance=2.5, labelangle=-45, headlabel="False"] ;
793 [label=<gini = 0.0<br/>samples = 54<br/>value = [54, 0, 0, 0, 0, 0, 0, 0, 0, 0, 0, 0, 0, 0<br/>0]<br/>class = r_depict>, fillcolor="#e58139"] ;
792 -> 793 ;
794 [label=<simB &le; 0.393<br/>gini = 0.667<br/>samples = 3<br/>value = [1, 0, 0, 0, 0, 0, 0, 0, 1, 0, 0, 0, 0, 1<br/>0]<br/>class = r_depict>, fillcolor="#ffffff"] ;
792 -> 794 ;
795 [label=<gini = 0.0<br/>samples = 1<br/>value = [0, 0, 0, 0, 0, 0, 0, 0, 0, 0, 0, 0, 0, 1<br/>0]<br/>class = r_social_tie>, fillcolor="#e5397b"] ;
794 -> 795 ;
796 [label=<simA &le; 0.496<br/>gini = 0.5<br/>samples = 2<br/>value = [1, 0, 0, 0, 0, 0, 0, 0, 1, 0, 0, 0, 0, 0<br/>0]<br/>class = r_depict>, fillcolor="#ffffff"] ;
794 -> 796 ;
797 [label=<gini = 0.0<br/>samples = 1<br/>value = [0, 0, 0, 0, 0, 0, 0, 0, 1, 0, 0, 0, 0, 0<br/>0]<br/>class = r_processus_agent>, fillcolor="#397be5"] ;
796 -> 797 ;
798 [label=<gini = 0.0<br/>samples = 1<br/>value = [1, 0, 0, 0, 0, 0, 0, 0, 0, 0, 0, 0, 0, 0<br/>0]<br/>class = r_depict>, fillcolor="#e58139"] ;
796 -> 798 ;
}