digraph Tree {
node [shape=box, style="filled, rounded", color="black", fontname="helvetica"] ;
edge [fontname="helvetica"] ;
0 [label=<x<SUB>171</SUB> &le; 0.117<br/>gini = 0.932<br/>samples = 739<br/>value = [77, 71, 75, 83, 79, 71, 80, 84, 79, 82, 69, 89<br/>84, 92, 44]<br/>class = r_social_tie>, fillcolor="#fffeff"] ;
1 [label=<x<SUB>429</SUB> &le; 0.128<br/>gini = 0.929<br/>samples = 698<br/>value = [77.0, 71.0, 75.0, 83.0, 76.0, 13.0, 80.0, 84.0, 79.0<br/>82.0, 69.0, 89.0, 84.0, 92.0, 44.0]<br/>class = r_social_tie>, fillcolor="#fffeff"] ;
0 -> 1 [labeldistance=2.5, labelangle=45, headlabel="True"] ;
2 [label=<x<SUB>364</SUB> &le; 0.071<br/>gini = 0.927<br/>samples = 654<br/>value = [77, 70, 75, 83, 76, 13, 79, 79, 79, 82, 69, 89<br/>84, 27, 44]<br/>class = r_product_of>, fillcolor="#fffeff"] ;
1 -> 2 ;
3 [label=<x<SUB>371</SUB> &le; 0.025<br/>gini = 0.908<br/>samples = 477<br/>value = [60.0, 70.0, 73.0, 71.0, 73.0, 9.0, 77.0, 3.0, 4.0<br/>75.0, 68.0, 3.0, 84.0, 24.0, 44.0]<br/>class = r_quantificateur>, fillcolor="#fffdfe"] ;
2 -> 3 ;
4 [label=<x<SUB>71</SUB> &le; 0.041<br/>gini = 0.237<br/>samples = 36<br/>value = [0, 54, 2, 0, 3, 2, 1, 0, 0, 0, 0, 0, 0, 0<br/>0]<br/>class = r_has_causatif>, fillcolor="#e9cd54"] ;
3 -> 4 ;
5 [label="(...)", fillcolor="#C0C0C0"] ;
4 -> 5 ;
10 [label="(...)", fillcolor="#C0C0C0"] ;
4 -> 10 ;
13 [label=<x<SUB>218</SUB> &le; 0.032<br/>gini = 0.903<br/>samples = 441<br/>value = [60.0, 16.0, 71.0, 71.0, 70.0, 7.0, 76.0, 3.0, 4.0<br/>75.0, 68.0, 3.0, 84.0, 24.0, 44.0]<br/>class = r_quantificateur>, fillcolor="#fffcfe"] ;
3 -> 13 ;
14 [label="(...)", fillcolor="#C0C0C0"] ;
13 -> 14 ;
45 [label="(...)", fillcolor="#C0C0C0"] ;
13 -> 45 ;
252 [label=<x<SUB>241</SUB> &le; 0.09<br/>gini = 0.767<br/>samples = 177<br/>value = [17, 0, 2, 12, 3, 4, 2, 76, 75, 7, 1, 86, 0<br/>3, 0]<br/>class = r_product_of>, fillcolor="#fcf6fe"] ;
2 -> 252 ;
253 [label=<x<SUB>327</SUB> &le; 0.092<br/>gini = 0.678<br/>samples = 98<br/>value = [10, 0, 2, 4, 2, 4, 0, 11, 72, 0, 1, 52, 0, 1<br/>0]<br/>class = r_processus_agent>, fillcolor="#dae6fa"] ;
252 -> 253 ;
254 [label="(...)", fillcolor="#C0C0C0"] ;
253 -> 254 ;
271 [label="(...)", fillcolor="#C0C0C0"] ;
253 -> 271 ;
308 [label=<x<SUB>345</SUB> &le; 0.116<br/>gini = 0.666<br/>samples = 79<br/>value = [7, 0, 0, 8, 1, 0, 2, 65, 3, 7, 0, 34, 0, 2<br/>0]<br/>class = r_own>, fillcolor="#beeaf7"] ;
252 -> 308 ;
309 [label="(...)", fillcolor="#C0C0C0"] ;
308 -> 309 ;
340 [label="(...)", fillcolor="#C0C0C0"] ;
308 -> 340 ;
347 [label=<x<SUB>235</SUB> &le; 0.11<br/>gini = 0.18<br/>samples = 44<br/>value = [0, 1, 0, 0, 0, 0, 1, 5, 0, 0, 0, 0, 0, 65<br/>0]<br/>class = r_social_tie>, fillcolor="#e84e89"] ;
1 -> 347 ;
348 [label=<x<SUB>414</SUB> &le; 0.042<br/>gini = 0.058<br/>samples = 41<br/>value = [0, 1, 0, 0, 0, 0, 0, 1, 0, 0, 0, 0, 0, 65<br/>0]<br/>class = r_social_tie>, fillcolor="#e63f7f"] ;
347 -> 348 ;
349 [label=<gini = 0.0<br/>samples = 1<br/>value = [0, 1, 0, 0, 0, 0, 0, 0, 0, 0, 0, 0, 0, 0<br/>0]<br/>class = r_has_causatif>, fillcolor="#e5c539"] ;
348 -> 349 ;
350 [label=<x<SUB>135</SUB> &le; 0.088<br/>gini = 0.03<br/>samples = 40<br/>value = [0, 0, 0, 0, 0, 0, 0, 1, 0, 0, 0, 0, 0, 65<br/>0]<br/>class = r_social_tie>, fillcolor="#e53c7d"] ;
348 -> 350 ;
351 [label="(...)", fillcolor="#C0C0C0"] ;
350 -> 351 ;
352 [label="(...)", fillcolor="#C0C0C0"] ;
350 -> 352 ;
353 [label=<x<SUB>30</SUB> &le; 0.116<br/>gini = 0.32<br/>samples = 3<br/>value = [0, 0, 0, 0, 0, 0, 1, 4, 0, 0, 0, 0, 0, 0<br/>0]<br/>class = r_own>, fillcolor="#6ad0ec"] ;
347 -> 353 ;
354 [label=<gini = 0.0<br/>samples = 2<br/>value = [0, 0, 0, 0, 0, 0, 0, 4, 0, 0, 0, 0, 0, 0<br/>0]<br/>class = r_own>, fillcolor="#39c0e5"] ;
353 -> 354 ;
355 [label=<gini = 0.0<br/>samples = 1<br/>value = [0, 0, 0, 0, 0, 0, 1, 0, 0, 0, 0, 0, 0, 0<br/>0]<br/>class = r_objet_matiere>, fillcolor="#39e5c5"] ;
353 -> 355 ;
356 [label=<x<SUB>300</SUB> &le; 0.053<br/>gini = 0.094<br/>samples = 41<br/>value = [0, 0, 0, 0, 3, 58, 0, 0, 0, 0, 0, 0, 0, 0<br/>0]<br/>class = r_lieu_origine>, fillcolor="#43e688"] ;
0 -> 356 [labeldistance=2.5, labelangle=-45, headlabel="False"] ;
357 [label=<gini = 0.0<br/>samples = 1<br/>value = [0, 0, 0, 0, 1, 0, 0, 0, 0, 0, 0, 0, 0, 0<br/>0]<br/>class = r_lieu>, fillcolor="#39e53c"] ;
356 -> 357 ;
358 [label=<x<SUB>175</SUB> &le; 0.146<br/>gini = 0.064<br/>samples = 40<br/>value = [0, 0, 0, 0, 2, 58, 0, 0, 0, 0, 0, 0, 0, 0<br/>0]<br/>class = r_lieu_origine>, fillcolor="#40e685"] ;
356 -> 358 ;
359 [label=<x<SUB>157</SUB> &le; 0.083<br/>gini = 0.033<br/>samples = 39<br/>value = [0, 0, 0, 0, 1, 58, 0, 0, 0, 0, 0, 0, 0, 0<br/>0]<br/>class = r_lieu_origine>, fillcolor="#3ce583"] ;
358 -> 359 ;
360 [label=<x<SUB>69</SUB> &le; 0.045<br/>gini = 0.245<br/>samples = 5<br/>value = [0, 0, 0, 0, 1, 6, 0, 0, 0, 0, 0, 0, 0, 0<br/>0]<br/>class = r_lieu_origine>, fillcolor="#5ae996"] ;
359 -> 360 ;
361 [label="(...)", fillcolor="#C0C0C0"] ;
360 -> 361 ;
362 [label="(...)", fillcolor="#C0C0C0"] ;
360 -> 362 ;
363 [label=<gini = 0.0<br/>samples = 34<br/>value = [0, 0, 0, 0, 0, 52, 0, 0, 0, 0, 0, 0, 0, 0<br/>0]<br/>class = r_lieu_origine>, fillcolor="#39e581"] ;
359 -> 363 ;
364 [label=<gini = 0.0<br/>samples = 1<br/>value = [0, 0, 0, 0, 1, 0, 0, 0, 0, 0, 0, 0, 0, 0<br/>0]<br/>class = r_lieu>, fillcolor="#39e53c"] ;
358 -> 364 ;
}