digraph Tree {
node [shape=box, style="filled, rounded", color="black", fontname="helvetica"] ;
edge [fontname="helvetica"] ;
0 [label=<x<SUB>177</SUB> &le; 0.107<br/>gini = 0.932<br/>samples = 739<br/>value = [77, 71, 75, 83, 79, 71, 80, 84, 79, 82, 69, 89<br/>84, 92, 44]<br/>class = r_social_tie>, fillcolor="#fffeff"] ;
1 [label=<x<SUB>124</SUB> &le; 0.08<br/>gini = 0.916<br/>samples = 539<br/>value = [70, 71, 74, 75, 75, 65, 80, 2, 5, 75, 69, 3<br/>80, 48, 39]<br/>class = r_objet_matiere>, fillcolor="#ffffff"] ;
0 -> 1 [labeldistance=2.5, labelangle=45, headlabel="True"] ;
2 [label=<x<SUB>43</SUB> &le; 0.118<br/>gini = 0.532<br/>samples = 76<br/>value = [0, 69, 43, 0, 0, 0, 1, 0, 0, 1, 1, 2, 0, 0<br/>2]<br/>class = r_has_causatif>, fillcolor="#f6ebbb"] ;
1 -> 2 ;
3 [label=<x<SUB>31</SUB> &le; 0.096<br/>gini = 0.3<br/>samples = 53<br/>value = [0.0, 69.0, 7.0, 0.0, 0.0, 0.0, 1.0, 0.0, 0.0, 1.0<br/>1.0, 2.0, 0.0, 0.0, 2.0]<br/>class = r_has_causatif>, fillcolor="#ead05d"] ;
2 -> 3 ;
4 [label=<x<SUB>149</SUB> &le; 0.072<br/>gini = 0.651<br/>samples = 10<br/>value = [0, 0, 7, 0, 0, 0, 1, 0, 0, 1, 0, 2, 0, 0<br/>2]<br/>class = r_has_property-1>, fillcolor="#e2f3a5"] ;
3 -> 4 ;
5 [label="(...)", fillcolor="#C0C0C0"] ;
4 -> 5 ;
8 [label="(...)", fillcolor="#C0C0C0"] ;
4 -> 8 ;
13 [label=<x<SUB>154</SUB> &le; 0.074<br/>gini = 0.028<br/>samples = 43<br/>value = [0, 69, 0, 0, 0, 0, 0, 0, 0, 0, 1, 0, 0, 0<br/>0]<br/>class = r_has_causatif>, fillcolor="#e5c63c"] ;
3 -> 13 ;
14 [label="(...)", fillcolor="#C0C0C0"] ;
13 -> 14 ;
15 [label="(...)", fillcolor="#C0C0C0"] ;
13 -> 15 ;
16 [label=<gini = 0.0<br/>samples = 23<br/>value = [0, 0, 36, 0, 0, 0, 0, 0, 0, 0, 0, 0, 0, 0<br/>0]<br/>class = r_has_property-1>, fillcolor="#c0e539"] ;
2 -> 16 ;
17 [label=<x<SUB>121</SUB> &le; 0.061<br/>gini = 0.906<br/>samples = 463<br/>value = [70, 2, 31, 75, 75, 65, 79, 2, 5, 74, 68, 1, 80<br/>48, 37]<br/>class = r_quantificateur>, fillcolor="#ffffff"] ;
1 -> 17 ;
18 [label=<x<SUB>291</SUB> &le; 0.095<br/>gini = 0.892<br/>samples = 372<br/>value = [59, 2, 31, 72, 18, 4, 78, 2, 5, 74, 68, 1, 79<br/>47, 35]<br/>class = r_quantificateur>, fillcolor="#ffffff"] ;
17 -> 18 ;
19 [label=<x<SUB>219</SUB> &le; 0.135<br/>gini = 0.882<br/>samples = 340<br/>value = [59, 1, 31, 69, 18, 4, 75, 2, 5, 69, 66, 1, 79<br/>6, 35]<br/>class = r_quantificateur>, fillcolor="#fffdfe"] ;
18 -> 19 ;
20 [label="(...)", fillcolor="#C0C0C0"] ;
19 -> 20 ;
197 [label="(...)", fillcolor="#C0C0C0"] ;
19 -> 197 ;
222 [label=<x<SUB>263</SUB> &le; 0.065<br/>gini = 0.428<br/>samples = 32<br/>value = [0, 1, 0, 3, 0, 0, 3, 0, 0, 5, 2, 0, 0, 41<br/>0]<br/>class = r_social_tie>, fillcolor="#ec70a0"] ;
18 -> 222 ;
223 [label="(...)", fillcolor="#C0C0C0"] ;
222 -> 223 ;
226 [label="(...)", fillcolor="#C0C0C0"] ;
222 -> 226 ;
237 [label=<x<SUB>137</SUB> &le; 0.141<br/>gini = 0.621<br/>samples = 91<br/>value = [11, 0, 0, 3, 57, 61, 1, 0, 0, 0, 0, 0, 1, 1<br/>2]<br/>class = r_lieu_origine>, fillcolor="#f5fef9"] ;
17 -> 237 ;
238 [label=<x<SUB>96</SUB> &le; 0.107<br/>gini = 0.325<br/>samples = 40<br/>value = [3, 0, 0, 1, 6, 48, 0, 0, 0, 0, 0, 0, 0, 1<br/>0]<br/>class = r_lieu_origine>, fillcolor="#62ea9b"] ;
237 -> 238 ;
239 [label="(...)", fillcolor="#C0C0C0"] ;
238 -> 239 ;
244 [label="(...)", fillcolor="#C0C0C0"] ;
238 -> 244 ;
247 [label=<x<SUB>109</SUB> &le; 0.072<br/>gini = 0.533<br/>samples = 51<br/>value = [8, 0, 0, 2, 51, 13, 1, 0, 0, 0, 0, 0, 1, 0<br/>2]<br/>class = r_lieu>, fillcolor="#8bf08d"] ;
237 -> 247 ;
248 [label="(...)", fillcolor="#C0C0C0"] ;
247 -> 248 ;
263 [label="(...)", fillcolor="#C0C0C0"] ;
247 -> 263 ;
266 [label=<x<SUB>222</SUB> &le; 0.127<br/>gini = 0.797<br/>samples = 200<br/>value = [7.0, 0.0, 1.0, 8.0, 4.0, 6.0, 0.0, 82.0, 74.0, 7.0<br/>0.0, 86.0, 4.0, 44.0, 5.0]<br/>class = r_product_of>, fillcolor="#fefcff"] ;
0 -> 266 [labeldistance=2.5, labelangle=-45, headlabel="False"] ;
267 [label=<x<SUB>290</SUB> &le; 0.06<br/>gini = 0.76<br/>samples = 141<br/>value = [5.0, 0.0, 1.0, 3.0, 4.0, 6.0, 0.0, 24.0, 74.0, 0.0<br/>0.0, 62.0, 0.0, 44.0, 0.0]<br/>class = r_processus_agent>, fillcolor="#f0f5fd"] ;
266 -> 267 ;
268 [label=<x<SUB>231</SUB> &le; 0.072<br/>gini = 0.661<br/>samples = 110<br/>value = [5, 0, 1, 1, 4, 2, 0, 21, 74, 0, 0, 62, 0, 0<br/>0]<br/>class = r_processus_agent>, fillcolor="#e9f0fc"] ;
267 -> 268 ;
269 [label=<x<SUB>290</SUB> &le; 0.041<br/>gini = 0.606<br/>samples = 31<br/>value = [0, 0, 0, 0, 4, 1, 0, 18, 1, 0, 0, 23, 0, 0<br/>0]<br/>class = r_product_of>, fillcolor="#f5ddfb"] ;
268 -> 269 ;
270 [label="(...)", fillcolor="#C0C0C0"] ;
269 -> 270 ;
283 [label="(...)", fillcolor="#C0C0C0"] ;
269 -> 283 ;
286 [label=<x<SUB>129</SUB> &le; 0.058<br/>gini = 0.545<br/>samples = 79<br/>value = [5, 0, 1, 1, 0, 1, 0, 3, 73, 0, 0, 39, 0, 0<br/>0]<br/>class = r_processus_agent>, fillcolor="#afcaf4"] ;
268 -> 286 ;
287 [label="(...)", fillcolor="#C0C0C0"] ;
286 -> 287 ;
302 [label="(...)", fillcolor="#C0C0C0"] ;
286 -> 302 ;
323 [label=<x<SUB>46</SUB> &le; 0.092<br/>gini = 0.3<br/>samples = 31<br/>value = [0, 0, 0, 2, 0, 4, 0, 3, 0, 0, 0, 0, 0, 44<br/>0]<br/>class = r_social_tie>, fillcolor="#ea5d93"] ;
267 -> 323 ;
324 [label=<gini = 0.0<br/>samples = 26<br/>value = [0, 0, 0, 0, 0, 0, 0, 0, 0, 0, 0, 0, 0, 43<br/>0]<br/>class = r_social_tie>, fillcolor="#e5397b"] ;
323 -> 324 ;
325 [label=<x<SUB>270</SUB> &le; 0.135<br/>gini = 0.7<br/>samples = 5<br/>value = [0, 0, 0, 2, 0, 4, 0, 3, 0, 0, 0, 0, 0, 1<br/>0]<br/>class = r_lieu_origine>, fillcolor="#e3fbed"] ;
323 -> 325 ;
326 [label="(...)", fillcolor="#C0C0C0"] ;
325 -> 326 ;
331 [label="(...)", fillcolor="#C0C0C0"] ;
325 -> 331 ;
332 [label=<x<SUB>128</SUB> &le; 0.107<br/>gini = 0.632<br/>samples = 59<br/>value = [2.0, 0.0, 0.0, 5.0, 0.0, 0.0, 0.0, 58.0, 0.0, 7.0<br/>0.0, 24.0, 4.0, 0.0, 5.0]<br/>class = r_own>, fillcolor="#ace5f4"] ;
266 -> 332 ;
333 [label=<x<SUB>91</SUB> &le; 0.096<br/>gini = 0.552<br/>samples = 52<br/>value = [2, 0, 0, 1, 0, 0, 0, 57, 0, 0, 0, 24, 4, 0<br/>5]<br/>class = r_own>, fillcolor="#a0e1f3"] ;
332 -> 333 ;
334 [label=<x<SUB>221</SUB> &le; 0.107<br/>gini = 0.4<br/>samples = 44<br/>value = [0, 0, 0, 0, 0, 0, 0, 57, 0, 0, 0, 20, 1, 0<br/>0]<br/>class = r_own>, fillcolor="#81d7ee"] ;
333 -> 334 ;
335 [label="(...)", fillcolor="#C0C0C0"] ;
334 -> 335 ;
338 [label="(...)", fillcolor="#C0C0C0"] ;
334 -> 338 ;
347 [label=<x<SUB>257</SUB> &le; 0.133<br/>gini = 0.756<br/>samples = 8<br/>value = [2, 0, 0, 1, 0, 0, 0, 0, 0, 0, 0, 4, 3, 0<br/>5]<br/>class = r_topic>, fillcolor="#fdeded"] ;
333 -> 347 ;
348 [label="(...)", fillcolor="#C0C0C0"] ;
347 -> 348 ;
349 [label="(...)", fillcolor="#C0C0C0"] ;
347 -> 349 ;
356 [label=<x<SUB>316</SUB> &le; 0.133<br/>gini = 0.542<br/>samples = 7<br/>value = [0, 0, 0, 4, 0, 0, 0, 1, 0, 7, 0, 0, 0, 0<br/>0]<br/>class = r_processus_instru>, fillcolor="#b6b5f5"] ;
332 -> 356 ;
357 [label=<x<SUB>96</SUB> &le; 0.078<br/>gini = 0.219<br/>samples = 5<br/>value = [0, 0, 0, 0, 0, 0, 0, 1, 0, 7, 0, 0, 0, 0<br/>0]<br/>class = r_processus_instru>, fillcolor="#5855e9"] ;
356 -> 357 ;
358 [label="(...)", fillcolor="#C0C0C0"] ;
357 -> 358 ;
359 [label="(...)", fillcolor="#C0C0C0"] ;
357 -> 359 ;
360 [label=<gini = 0.0<br/>samples = 2<br/>value = [0, 0, 0, 4, 0, 0, 0, 0, 0, 0, 0, 0, 0, 0<br/>0]<br/>class = r_holo>, fillcolor="#7be539"] ;
356 -> 360 ;
}